<?xml version="1.0"?>
<opencv_storage>
<stage11>
  <maxWeakCount>5</maxWeakCount>
  <stageThreshold>-1.1680014133453369e+00</stageThreshold>
  <weakClassifiers>
    <_>
      <internalNodes>
        0 -1 66022 -1.7632377147674561e-01</internalNodes>
      <leafValues>
        4.3703705072402954e-01 -6.4263319969177246e-01</leafValues></_>
    <_>
      <internalNodes>
        0 -1 77913 7.2333872318267822e-02</internalNodes>
      <leafValues>
        3.4131151437759399e-01 -6.7433255910873413e-01</leafValues></_>
    <_>
      <internalNodes>
        0 -1 182490 1.1639200150966644e-02</internalNodes>
      <leafValues>
        2.8631767630577087e-01 -6.3774418830871582e-01</leafValues></_>
    <_>
      <internalNodes>
        0 -1 172793 -9.1030187904834747e-03</internalNodes>
      <leafValues>
        3.6629033088684082e-01 -4.0037485957145691e-01</leafValues></_>
    <_>
      <internalNodes>
        0 -1 33926 -5.9582183894235641e-05</internalNodes>
      <leafValues>
        -5.0364357233047485e-01 2.9198682308197021e-01</leafValues></_></weakClassifiers></stage11>
</opencv_storage>
