<?xml version="1.0"?>
<opencv_storage>
<stage1>
  <maxWeakCount>10</maxWeakCount>
  <stageThreshold>-1.4697377681732178e+00</stageThreshold>
  <weakClassifiers>
    <_>
      <internalNodes>
        0 -1 3601 -4.1600924730300903e-01</internalNodes>
      <leafValues>
        4.5312500000000000e-01 -6.2576687335968018e-01</leafValues></_>
    <_>
      <internalNodes>
        0 -1 11427 -6.5035121515393257e-03</internalNodes>
      <leafValues>
        2.7632644772529602e-01 -5.3334242105484009e-01</leafValues></_>
    <_>
      <internalNodes>
        0 -1 217226 -2.2164647816680372e-04</internalNodes>
      <leafValues>
        4.7569990158081055e-01 -3.2300922274589539e-01</leafValues></_>
    <_>
      <internalNodes>
        0 -1 127912 -2.9936099424958229e-02</internalNodes>
      <leafValues>
        -6.3595134019851685e-01 2.2503674030303955e-01</leafValues></_>
    <_>
      <internalNodes>
        0 -1 205321 3.4619590733200312e-03</internalNodes>
      <leafValues>
        -2.2357293963432312e-01 7.8124529123306274e-01</leafValues></_>
    <_>
      <internalNodes>
        0 -1 49135 7.1448318660259247e-02</internalNodes>
      <leafValues>
        3.1758558750152588e-01 -6.6366606950759888e-01</leafValues></_>
    <_>
      <internalNodes>
        0 -1 221655 -3.1834928086027503e-04</internalNodes>
      <leafValues>
        5.2906495332717896e-01 -3.0994755029678345e-01</leafValues></_>
    <_>
      <internalNodes>
        0 -1 142680 -5.4891150444746017e-02</internalNodes>
      <leafValues>
        -7.6652878522872925e-01 1.8490193784236908e-01</leafValues></_>
    <_>
      <internalNodes>
        0 -1 214194 -4.8674532445147634e-04</internalNodes>
      <leafValues>
        3.8393232226371765e-01 -3.7544268369674683e-01</leafValues></_>
    <_>
      <internalNodes>
        0 -1 190328 3.6330342292785645e-02</internalNodes>
      <leafValues>
        1.9381959736347198e-01 -8.4355628490447998e-01</leafValues></_></weakClassifiers></stage1>
</opencv_storage>
