<?xml version="1.0"?>
<opencv_storage>
<stage9>
  <maxWeakCount>100</maxWeakCount>
  <stageThreshold>-2.4708211421966553e+00</stageThreshold>
  <weakClassifiers>
    <_>
      <internalNodes>
        0 -1 4680 -3.3142492175102234e-03</internalNodes>
      <leafValues>
        7.9354840517044067e-01 -8.9966553449630737e-01</leafValues></_>
    <_>
      <internalNodes>
        0 -1 5650 -4.6865202602930367e-04</internalNodes>
      <leafValues>
        9.1551095247268677e-01 -5.7181638479232788e-01</leafValues></_>
    <_>
      <internalNodes>
        0 -1 209996 -1.3927363324910402e-03</internalNodes>
      <leafValues>
        6.3748568296432495e-01 -5.7842582464218140e-01</leafValues></_>
    <_>
      <internalNodes>
        0 -1 200885 -8.7612061179243028e-05</internalNodes>
      <leafValues>
        1. -3.4132835268974304e-01</leafValues></_>
    <_>
      <internalNodes>
        0 -1 217264 -5.7421300880378112e-05</internalNodes>
      <leafValues>
        9.2752641439437866e-01 -1.4103148877620697e-01</leafValues></_>
    <_>
      <internalNodes>
        0 -1 113256 -8.1619992852210999e-02</internalNodes>
      <leafValues>
        -1. 2.4450570344924927e-01</leafValues></_>
    <_>
      <internalNodes>
        0 -1 62449 4.1289359796792269e-04</internalNodes>
      <leafValues>
        -2.4375708401203156e-01 9.6302229166030884e-01</leafValues></_>
    <_>
      <internalNodes>
        0 -1 221833 1.8589704268379137e-05</internalNodes>
      <leafValues>
        1.9907507300376892e-01 -7.4599272012710571e-01</leafValues></_>
    <_>
      <internalNodes>
        0 -1 62632 -3.9609282976016402e-04</internalNodes>
      <leafValues>
        1. -1.4182667434215546e-01</leafValues></_>
    <_>
      <internalNodes>
        0 -1 157397 2.2822860046289861e-04</internalNodes>
      <leafValues>
        -6.3938438892364502e-02 9.6234381198883057e-01</leafValues></_>
    <_>
      <internalNodes>
        0 -1 213231 -2.7749611763283610e-04</internalNodes>
      <leafValues>
        -7.0805352926254272e-01 1.1700527369976044e-01</leafValues></_>
    <_>
      <internalNodes>
        0 -1 160215 -5.4605619516223669e-04</internalNodes>
      <leafValues>
        8.8028860092163086e-01 -8.7885886430740356e-02</leafValues></_>
    <_>
      <internalNodes>
        0 -1 193528 1.8582541961222887e-03</internalNodes>
      <leafValues>
        -3.5902142524719238e-02 1.</leafValues></_>
    <_>
      <internalNodes>
        0 -1 9585 -7.7087126555852592e-05</internalNodes>
      <leafValues>
        -7.6826578378677368e-01 9.4949483871459961e-02</leafValues></_>
    <_>
      <internalNodes>
        0 -1 75155 6.0708040837198496e-04</internalNodes>
      <leafValues>
        -4.1007611900568008e-02 9.5494717359542847e-01</leafValues></_>
    <_>
      <internalNodes>
        0 -1 221349 6.3734565628692508e-04</internalNodes>
      <leafValues>
        -1.3924185186624527e-02 1.</leafValues></_>
    <_>
      <internalNodes>
        0 -1 144738 3.3210721448995173e-04</internalNodes>
      <leafValues>
        4.1995275765657425e-02 -1.</leafValues></_>
    <_>
      <internalNodes>
        0 -1 203087 -5.4890633327886462e-04</internalNodes>
      <leafValues>
        1. -6.3233338296413422e-03</leafValues></_>
    <_>
      <internalNodes>
        0 -1 12758 -1.3492228754330426e-04</internalNodes>
      <leafValues>
        1. -1.7635123804211617e-02</leafValues></_>
    <_>
      <internalNodes>
        0 -1 174 -4.3768672185251489e-05</internalNodes>
      <leafValues>
        -1. 1.6114702448248863e-02</leafValues></_>
    <_>
      <internalNodes>
        0 -1 174 -2.2962365619605407e-05</internalNodes>
      <leafValues>
        1. -2.8597144410014153e-03</leafValues></_>
    <_>
      <internalNodes>
        0 -1 174 -4.3768672185251489e-05</internalNodes>
      <leafValues>
        -1. 2.8611018788069487e-03</leafValues></_>
    <_>
      <internalNodes>
        0 -1 174 -2.2962365619605407e-05</internalNodes>
      <leafValues>
        1. -2.8611018788069487e-03</leafValues></_>
    <_>
      <internalNodes>
        0 -1 174 -4.3768672185251489e-05</internalNodes>
      <leafValues>
        -1. 2.8611018788069487e-03</leafValues></_>
    <_>
      <internalNodes>
        0 -1 174 -2.2962365619605407e-05</internalNodes>
      <leafValues>
        1. -2.8611018788069487e-03</leafValues></_>
    <_>
      <internalNodes>
        0 -1 174 -4.3768672185251489e-05</internalNodes>
      <leafValues>
        -1. 2.8611018788069487e-03</leafValues></_>
    <_>
      <internalNodes>
        0 -1 174 -2.2962365619605407e-05</internalNodes>
      <leafValues>
        1. -2.8611018788069487e-03</leafValues></_>
    <_>
      <internalNodes>
        0 -1 174 -4.3768672185251489e-05</internalNodes>
      <leafValues>
        -1. 2.8611018788069487e-03</leafValues></_>
    <_>
      <internalNodes>
        0 -1 174 -2.2962365619605407e-05</internalNodes>
      <leafValues>
        1. -2.8611018788069487e-03</leafValues></_>
    <_>
      <internalNodes>
        0 -1 174 -4.3768672185251489e-05</internalNodes>
      <leafValues>
        -1. 2.8611018788069487e-03</leafValues></_>
    <_>
      <internalNodes>
        0 -1 174 -2.2962365619605407e-05</internalNodes>
      <leafValues>
        1. -2.8611018788069487e-03</leafValues></_>
    <_>
      <internalNodes>
        0 -1 174 -4.3768672185251489e-05</internalNodes>
      <leafValues>
        -1. 2.8611018788069487e-03</leafValues></_>
    <_>
      <internalNodes>
        0 -1 174 -2.2962365619605407e-05</internalNodes>
      <leafValues>
        1. -2.8611018788069487e-03</leafValues></_>
    <_>
      <internalNodes>
        0 -1 174 -4.3768672185251489e-05</internalNodes>
      <leafValues>
        -1. 2.8611018788069487e-03</leafValues></_>
    <_>
      <internalNodes>
        0 -1 174 -2.2962365619605407e-05</internalNodes>
      <leafValues>
        1. -2.8611018788069487e-03</leafValues></_>
    <_>
      <internalNodes>
        0 -1 174 -4.3768672185251489e-05</internalNodes>
      <leafValues>
        -1. 2.8611018788069487e-03</leafValues></_>
    <_>
      <internalNodes>
        0 -1 174 -2.2962365619605407e-05</internalNodes>
      <leafValues>
        1. -2.8611018788069487e-03</leafValues></_>
    <_>
      <internalNodes>
        0 -1 174 -4.3768672185251489e-05</internalNodes>
      <leafValues>
        -1. 2.8611018788069487e-03</leafValues></_>
    <_>
      <internalNodes>
        0 -1 174 -2.2962365619605407e-05</internalNodes>
      <leafValues>
        1. -2.8611018788069487e-03</leafValues></_>
    <_>
      <internalNodes>
        0 -1 174 -4.3768672185251489e-05</internalNodes>
      <leafValues>
        -1. 2.8611018788069487e-03</leafValues></_>
    <_>
      <internalNodes>
        0 -1 174 -2.2962365619605407e-05</internalNodes>
      <leafValues>
        1. -2.8611018788069487e-03</leafValues></_>
    <_>
      <internalNodes>
        0 -1 174 -4.3768672185251489e-05</internalNodes>
      <leafValues>
        -1. 2.8611018788069487e-03</leafValues></_>
    <_>
      <internalNodes>
        0 -1 174 -2.2962365619605407e-05</internalNodes>
      <leafValues>
        1. -2.8611018788069487e-03</leafValues></_>
    <_>
      <internalNodes>
        0 -1 174 -4.3768672185251489e-05</internalNodes>
      <leafValues>
        -1. 2.8611018788069487e-03</leafValues></_>
    <_>
      <internalNodes>
        0 -1 174 -2.2962365619605407e-05</internalNodes>
      <leafValues>
        1. -2.8611018788069487e-03</leafValues></_>
    <_>
      <internalNodes>
        0 -1 174 -4.3768672185251489e-05</internalNodes>
      <leafValues>
        -1. 2.8611018788069487e-03</leafValues></_>
    <_>
      <internalNodes>
        0 -1 174 -2.2962365619605407e-05</internalNodes>
      <leafValues>
        1. -2.8611018788069487e-03</leafValues></_>
    <_>
      <internalNodes>
        0 -1 174 -4.3768672185251489e-05</internalNodes>
      <leafValues>
        -1. 2.8611018788069487e-03</leafValues></_>
    <_>
      <internalNodes>
        0 -1 174 -2.2962365619605407e-05</internalNodes>
      <leafValues>
        1. -2.8611018788069487e-03</leafValues></_>
    <_>
      <internalNodes>
        0 -1 174 -4.3768672185251489e-05</internalNodes>
      <leafValues>
        -1. 2.8611018788069487e-03</leafValues></_>
    <_>
      <internalNodes>
        0 -1 174 -2.2962365619605407e-05</internalNodes>
      <leafValues>
        1. -2.8611018788069487e-03</leafValues></_>
    <_>
      <internalNodes>
        0 -1 174 -4.3768672185251489e-05</internalNodes>
      <leafValues>
        -1. 2.8611018788069487e-03</leafValues></_>
    <_>
      <internalNodes>
        0 -1 174 -2.2962365619605407e-05</internalNodes>
      <leafValues>
        1. -2.8611018788069487e-03</leafValues></_>
    <_>
      <internalNodes>
        0 -1 174 -4.3768672185251489e-05</internalNodes>
      <leafValues>
        -1. 2.8611018788069487e-03</leafValues></_>
    <_>
      <internalNodes>
        0 -1 174 -2.2962365619605407e-05</internalNodes>
      <leafValues>
        1. -2.8611018788069487e-03</leafValues></_>
    <_>
      <internalNodes>
        0 -1 174 -4.3768672185251489e-05</internalNodes>
      <leafValues>
        -1. 2.8611018788069487e-03</leafValues></_>
    <_>
      <internalNodes>
        0 -1 174 -2.2962365619605407e-05</internalNodes>
      <leafValues>
        1. -2.8611018788069487e-03</leafValues></_>
    <_>
      <internalNodes>
        0 -1 174 -4.3768672185251489e-05</internalNodes>
      <leafValues>
        -1. 2.8611018788069487e-03</leafValues></_>
    <_>
      <internalNodes>
        0 -1 174 -2.2962365619605407e-05</internalNodes>
      <leafValues>
        1. -2.8611018788069487e-03</leafValues></_>
    <_>
      <internalNodes>
        0 -1 174 -4.3768672185251489e-05</internalNodes>
      <leafValues>
        -1. 2.8611018788069487e-03</leafValues></_>
    <_>
      <internalNodes>
        0 -1 174 -2.2962365619605407e-05</internalNodes>
      <leafValues>
        1. -2.8611018788069487e-03</leafValues></_>
    <_>
      <internalNodes>
        0 -1 174 -4.3768672185251489e-05</internalNodes>
      <leafValues>
        -1. 2.8611018788069487e-03</leafValues></_>
    <_>
      <internalNodes>
        0 -1 174 -2.2962365619605407e-05</internalNodes>
      <leafValues>
        1. -2.8611018788069487e-03</leafValues></_>
    <_>
      <internalNodes>
        0 -1 174 -4.3768672185251489e-05</internalNodes>
      <leafValues>
        -1. 2.8611018788069487e-03</leafValues></_>
    <_>
      <internalNodes>
        0 -1 174 -2.2962365619605407e-05</internalNodes>
      <leafValues>
        1. -2.8611018788069487e-03</leafValues></_>
    <_>
      <internalNodes>
        0 -1 174 -4.3768672185251489e-05</internalNodes>
      <leafValues>
        -1. 2.8611018788069487e-03</leafValues></_>
    <_>
      <internalNodes>
        0 -1 174 -2.2962365619605407e-05</internalNodes>
      <leafValues>
        1. -2.8611018788069487e-03</leafValues></_>
    <_>
      <internalNodes>
        0 -1 174 -4.3768672185251489e-05</internalNodes>
      <leafValues>
        -1. 2.8611018788069487e-03</leafValues></_>
    <_>
      <internalNodes>
        0 -1 174 -2.2962365619605407e-05</internalNodes>
      <leafValues>
        1. -2.8611018788069487e-03</leafValues></_>
    <_>
      <internalNodes>
        0 -1 174 -4.3768672185251489e-05</internalNodes>
      <leafValues>
        -1. 2.8611018788069487e-03</leafValues></_>
    <_>
      <internalNodes>
        0 -1 174 -2.2962365619605407e-05</internalNodes>
      <leafValues>
        1. -2.8611018788069487e-03</leafValues></_>
    <_>
      <internalNodes>
        0 -1 174 -4.3768672185251489e-05</internalNodes>
      <leafValues>
        -1. 2.8611018788069487e-03</leafValues></_>
    <_>
      <internalNodes>
        0 -1 174 -2.2962365619605407e-05</internalNodes>
      <leafValues>
        1. -2.8611018788069487e-03</leafValues></_>
    <_>
      <internalNodes>
        0 -1 174 -4.3768672185251489e-05</internalNodes>
      <leafValues>
        -1. 2.8611018788069487e-03</leafValues></_>
    <_>
      <internalNodes>
        0 -1 174 -2.2962365619605407e-05</internalNodes>
      <leafValues>
        1. -2.8611018788069487e-03</leafValues></_>
    <_>
      <internalNodes>
        0 -1 174 -4.3768672185251489e-05</internalNodes>
      <leafValues>
        -1. 2.8611018788069487e-03</leafValues></_>
    <_>
      <internalNodes>
        0 -1 174 -2.2962365619605407e-05</internalNodes>
      <leafValues>
        1. -2.8611018788069487e-03</leafValues></_>
    <_>
      <internalNodes>
        0 -1 174 -4.3768672185251489e-05</internalNodes>
      <leafValues>
        -1. 2.8611018788069487e-03</leafValues></_>
    <_>
      <internalNodes>
        0 -1 174 -2.2962365619605407e-05</internalNodes>
      <leafValues>
        1. -2.8611018788069487e-03</leafValues></_>
    <_>
      <internalNodes>
        0 -1 174 -4.3768672185251489e-05</internalNodes>
      <leafValues>
        -1. 2.8611018788069487e-03</leafValues></_>
    <_>
      <internalNodes>
        0 -1 174 -2.2962365619605407e-05</internalNodes>
      <leafValues>
        1. -2.8611018788069487e-03</leafValues></_>
    <_>
      <internalNodes>
        0 -1 174 -4.3768672185251489e-05</internalNodes>
      <leafValues>
        -1. 2.8611018788069487e-03</leafValues></_>
    <_>
      <internalNodes>
        0 -1 174 -2.2962365619605407e-05</internalNodes>
      <leafValues>
        1. -2.8611018788069487e-03</leafValues></_>
    <_>
      <internalNodes>
        0 -1 174 -4.3768672185251489e-05</internalNodes>
      <leafValues>
        -1. 2.8611018788069487e-03</leafValues></_>
    <_>
      <internalNodes>
        0 -1 174 -2.2962365619605407e-05</internalNodes>
      <leafValues>
        1. -2.8611018788069487e-03</leafValues></_>
    <_>
      <internalNodes>
        0 -1 174 -4.3768672185251489e-05</internalNodes>
      <leafValues>
        -1. 2.8611018788069487e-03</leafValues></_>
    <_>
      <internalNodes>
        0 -1 174 -2.2962365619605407e-05</internalNodes>
      <leafValues>
        1. -2.8611018788069487e-03</leafValues></_>
    <_>
      <internalNodes>
        0 -1 174 -4.3768672185251489e-05</internalNodes>
      <leafValues>
        -1. 2.8611018788069487e-03</leafValues></_>
    <_>
      <internalNodes>
        0 -1 174 -2.2962365619605407e-05</internalNodes>
      <leafValues>
        1. -2.8611018788069487e-03</leafValues></_>
    <_>
      <internalNodes>
        0 -1 174 -4.3768672185251489e-05</internalNodes>
      <leafValues>
        -1. 2.8611018788069487e-03</leafValues></_>
    <_>
      <internalNodes>
        0 -1 174 -2.2962365619605407e-05</internalNodes>
      <leafValues>
        1. -2.8611018788069487e-03</leafValues></_>
    <_>
      <internalNodes>
        0 -1 174 -4.3768672185251489e-05</internalNodes>
      <leafValues>
        -1. 2.8611018788069487e-03</leafValues></_>
    <_>
      <internalNodes>
        0 -1 174 -2.2962365619605407e-05</internalNodes>
      <leafValues>
        1. -2.8611018788069487e-03</leafValues></_>
    <_>
      <internalNodes>
        0 -1 174 -4.3768672185251489e-05</internalNodes>
      <leafValues>
        -1. 2.8611018788069487e-03</leafValues></_>
    <_>
      <internalNodes>
        0 -1 174 -2.2962365619605407e-05</internalNodes>
      <leafValues>
        1. -2.8611018788069487e-03</leafValues></_>
    <_>
      <internalNodes>
        0 -1 174 -4.3768672185251489e-05</internalNodes>
      <leafValues>
        -1. 2.8611018788069487e-03</leafValues></_>
    <_>
      <internalNodes>
        0 -1 174 -2.2962365619605407e-05</internalNodes>
      <leafValues>
        1. -2.8611018788069487e-03</leafValues></_>
    <_>
      <internalNodes>
        0 -1 174 -4.3768672185251489e-05</internalNodes>
      <leafValues>
        -1. 2.8611018788069487e-03</leafValues></_>
    <_>
      <internalNodes>
        0 -1 174 -2.2962365619605407e-05</internalNodes>
      <leafValues>
        1. -2.8611018788069487e-03</leafValues></_>
    <_>
      <internalNodes>
        0 -1 174 -4.3768672185251489e-05</internalNodes>
      <leafValues>
        -1. 2.8611018788069487e-03</leafValues></_></weakClassifiers></stage9>
</opencv_storage>
